34 128
34 0.14020438 -0.001499316 -0.0042429506 -0.019922765 0.01240222 -0.137881 -0.056531794 0.047743585 -0.007774805 -0.030996962 0.053722717 -0.05344 -0.16731487 -0.0577942 -0.021284034 -0.116275825 -0.03827915 0.030073717 -0.13593856 0.04975737 0.01569168 0.07474271 -0.052490544 0.056482136 0.013867348 -0.10042774 -0.20867221 0.02424296 0.09013058 0.0065139793 -0.0020767578 -0.008042586 -0.11580435 -0.12448117 -0.015615931 0.080945894 -0.135659 -0.056094497 -0.0042369855 0.08441842 0.13266975 0.011207077 -0.01754416 0.075792894 -0.058797434 0.058683887 0.28897116 0.11610995 0.02166844 -0.10202513 0.084653586 0.06127482 -0.06503277 -0.19517525 0.23996088 0.08426518 0.02620498 0.21651617 -0.086601265 -0.055353772 -0.01125637 0.19786003 0.0748816 -0.09196253 -0.05495124 0.17186356 -0.06466589 0.011964214 -0.2313644 -0.0013979825 0.12798174 0.15444104 0.14732894 -0.051165566 -0.10603391 -0.05755537 -0.041214183 0.18902121 0.14378114 0.02677617 0.008632571 0.0059666866 0.018280128 -0.17130364 -0.07302219 0.013082148 0.028884076 -0.13864692 -0.008321895 -0.07505088 0.07517678 0.037798937 -0.015969796 0.17852002 0.121317446 0.09828272 -0.19212528 0.08152122 -0.060251202 -0.07248105 -0.027258612 -0.053690765 -0.05577206 0.3006796 0.21304579 -0.13600399 0.117987566 0.13028054 0.07961025 -0.012308558 -0.10868368 -0.09713835 0.271781 -0.1312338 0.21843109 -0.03539006 0.099720895 -0.17194994 0.05533076 0.09164913 0.0315761 -0.070069745 0.08611815 -0.1731042 0.0403808 0.21212411 0.034371316 -0.09619537
1 0.12920633 -0.06791157 0.15324938 -0.024942497 0.00227767 -0.20045651 -0.07424737 0.0006116206 -0.08764385 -0.06963246 0.030183356 -0.019134024 -0.11953784 -0.084795214 -0.22034565 -0.19882782 -0.03351457 0.010930745 -0.04368997 -0.004576877 0.053745672 0.040659353 -0.066391096 0.014680478 0.011616603 -0.03897221 -0.1795463 -0.08585148 0.045695443 -0.0525971 -0.13848053 -0.019716252 -0.0024257125 -0.22228977 0.08354731 0.16075607 0.041135293 -0.13623695 0.051720478 0.086796395 0.18706825 0.03446661 0.11442108 0.09930871 -0.01517071 0.13610756 0.30024728 -0.032738503 -0.0040692827 -0.0018268393 0.09005042 0.07445954 0.024885174 -0.10631832 0.08702965 -0.09771926 -0.07712011 0.18076938 -0.16891576 -0.025003055 -0.08752927 0.15934192 0.0061726826 -0.18211931 -0.11601506 0.11163471 -0.015013692 -0.047376215 -0.26205283 -0.019220721 0.28440955 0.15586059 0.08421497 -0.056128904 -0.35508955 0.041734517 -0.05145804 0.10938165 0.072718255 -0.066248804 -0.08038191 -0.07581559 -0.11320526 0.039478846 -0.027276361 0.03563745 -0.02833137 -0.15787755 0.14149974 -0.13829142 0.15528658 -0.0025360105 -0.055387855 0.09543197 0.24620225 0.06243097 -0.17634869 0.11820446 0.010215201 -0.041606084 -0.03864961 -0.018563395 0.05361985 0.23735058 0.053996358 -0.13959439 0.062375963 0.092983015 0.11550401 0.23957388 -0.030253973 -0.041845895 0.2419699 -0.0048817764 0.25489426 -0.04503531 0.17346346 -0.1444806 -0.057396874 -0.074994706 0.10119383 -0.13172756 0.014718224 -0.2902293 0.110268526 0.20290323 -0.058386605 -0.00436336
33 0.13649966 -0.0055418946 -0.009640435 -0.017540365 0.013087642 -0.13500454 -0.051090077 0.05066625 0.00169691 -0.028505312 0.052821916 -0.053410113 -0.15922001 -0.062643506 -0.015742594 -0.10735683 -0.043018818 0.029306209 -0.14240707 0.054789342 0.0054267915 0.08091302 -0.04923542 0.05261688 0.0065311845 -0.09564478 -0.21402325 0.030406158 0.097014055 0.0051002265 0.0015349512 -0.010695668 -0.115859844 -0.11776562 -0.022832526 0.080561265 -0.14207359 -0.04887166 -0.0035075478 0.08468544 0.1288638 0.004969918 -0.01743902 0.073686734 -0.06004285 0.045112576 0.28142557 0.12037577 0.019598402 -0.10880234 0.08429909 0.05880919 -0.065826 -0.19296882 0.2449514 0.09059232 0.03055618 0.2114231 -0.07140652 -0.058968373 0.0024896618 0.19631214 0.072016895 -0.08172869 -0.04754119 0.17363018 -0.06677696 0.008011063 -0.22068077 -0.0031737199 0.111057594 0.1442573 0.14959729 -0.05405733 -0.08757606 -0.055484984 -0.039527312 0.19334106 0.14071663 0.027690131 0.018639758 0.01697589 0.025769444 -0.18190734 -0.075566836 0.01311593 0.037516776 -0.13867438 -0.011015713 -0.08018354 0.0736507 0.030898765 -0.013004777 0.17642307 0.113131166 0.09801284 -0.18409614 0.07219066 -0.06921299 -0.06749946 -0.02702324 -0.05109555 -0.06239675 0.29099107 0.21604393 -0.13134496 0.12196865 0.11820957 0.07114298 -0.031361505 -0.111331746 -0.09819702 0.26585484 -0.1385007 0.21291135 -0.04027491 0.09605218 -0.16881427 0.065021165 0.10007318 0.02047307 -0.06904406 0.0860732 -0.15648338 0.037743654 0.19751486 0.043411236 -0.09912533
3 0.1268605 -0.01937877 0.0533328 -0.015943445 0.010056386 -0.15050025 -0.06400421 0.030760838 -0.03833991 -0.043103263 0.04063782 -0.03337214 -0.14643906 -0.069787115 -0.09107846 -0.13930817 -0.029247737 0.017935986 -0.099962056 0.029049437 0.030948427 0.05797594 -0.05508143 0.043176863 0.011726492 -0.07914079 -0.20791289 -0.008959423 0.06565091 -0.013557559 -0.051734827 -0.010642312 -0.07024518 -0.15455304 0.018730966 0.10556017 -0.07127286 -0.07397749 0.0030991964 0.08006918 0.1461314 0.02581446 0.019642204 0.0673899 -0.041981086 0.0822962 0.2855909 0.06474451 0.016082382 -0.066308565 0.08017667 0.06100644 -0.04217273 -0.16681159 0.18612245 0.030057661 -0.013540028 0.19979014 -0.110261016 -0.051124424 -0.03009843 0.17940891 0.04305856 -0.1270978 -0.07006472 0.14542924 -0.03895251 -0.008716453 -0.24058972 -0.008701918 0.18081035 0.15572065 0.12533751 -0.0409304 -0.18921912 -0.035492413 -0.04524279 0.15452117 0.113149635 -0.0060117235 -0.027602747 -0.016812393 -0.017571907 -0.09230923 -0.05056517 0.025303058 0.0069558453 -0.1514072 0.041308325 -0.094876006 0.094541855 0.018572992 -0.025728753 0.13951652 0.15900263 0.085911 -0.18574429 0.09113833 -0.042946916 -0.06386991 -0.022919968 -0.039030116 -0.014527361 0.28241867 0.1518048 -0.12591068 0.10000667 0.123171784 0.09376958 0.078707844 -0.07750106 -0.070010066 0.25760904 -0.08744357 0.22798973 -0.040748917 0.1088838 -0.15358005 0.018024698 0.037677877 0.061250683 -0.08862115 0.055497017 -0.21754913 0.06097428 0.20358843 0.0037869029 -0.056349076
2 0.12507416 -0.024338253 0.080916226 -0.018341651 0.007459085 -0.15829565 -0.064139545 0.017553262 -0.049831998 -0.050107934 0.037224848 -0.031523302 -0.13762796 -0.071804896 -0.11560794 -0.1539853 -0.033587046 0.02178774 -0.08622172 0.014220947 0.035534255 0.043896243 -0.052235007 0.036317453 0.014946115 -0.06957505 -0.19277354 -0.029455997 0.065795794 -0.024465492 -0.072730996 -0.014164074 -0.04858055 -0.1673835 0.036983173 0.11437857 -0.043552842 -0.08618754 0.012368124 0.087158374 0.15227194 0.028215626 0.04721811 0.08166394 -0.039587334 0.095822476 0.28813303 0.036552995 0.010348608 -0.052389316 0.080630705 0.06005788 -0.021086741 -0.14874452 0.15886076 -0.0045637935 -0.024319066 0.19514774 -0.12505731 -0.04606863 -0.05016786 0.17942335 0.034720313 -0.13829954 -0.08468267 0.13344459 -0.036491074 -0.013767315 -0.24529923 -0.0060025714 0.20692366 0.15952495 0.10853785 -0.043207806 -0.22774298 -0.02435699 -0.050157532 0.13668665 0.10536726 -0.02430211 -0.033097915 -0.037079934 -0.04208561 -0.060843408 -0.040974382 0.020980056 -0.009103217 -0.15141186 0.06446957 -0.10090679 0.10492535 0.019241782 -0.029141804 0.13026428 0.18168947 0.0814518 -0.18436116 0.0986367 -0.028401382 -0.060025018 -0.03154614 -0.038626917 0.00033177529 0.27243462 0.12116966 -0.13485019 0.08785693 0.11695914 0.09819831 0.11967808 -0.06443166 -0.062927805 0.2486433 -0.062004346 0.23244365 -0.043702886 0.12666084 -0.14854585 -0.0017892387 0.0044067483 0.07145217 -0.10144422 0.048786197 -0.23527212 0.07033407 0.19908473 -0.009284121 -0.042930733
4 0.11432264 -0.04409235 0.11731861 -0.022213323 0.001201487 -0.17552735 -0.069955245 0.001814615 -0.0717469 -0.061857138 0.0276837 -0.021929607 -0.11942004 -0.07760889 -0.17334625 -0.17300987 -0.021808289 0.013849896 -0.05706187 -0.0015911317 0.04901818 0.040874276 -0.06177636 0.026068255 0.0187502 -0.049088698 -0.18335474 -0.059058174 0.043532744 -0.037751596 -0.10742944 -0.014214498 -0.015372353 -0.18934186 0.064072646 0.13917595 0.010165022 -0.11225418 0.023744073 0.08064313 0.16576494 0.034157746 0.07889809 0.08226889 -0.023878083 0.11613049 0.2819429 -0.006810737 0.0046145055 -0.014454173 0.08109064 0.063145876 0.0024264175 -0.12374722 0.10311602 -0.05574461 -0.05881249 0.17325951 -0.1484038 -0.03514227 -0.069089636 0.1569411 0.02159858 -0.16342188 -0.09945177 0.11667638 -0.017610021 -0.03450748 -0.2521928 -0.011072613 0.2504846 0.16039854 0.092647605 -0.04887044 -0.29654437 0.0040172497 -0.046643537 0.10981494 0.08164146 -0.051483754 -0.06204336 -0.053663693 -0.081840955 0.0032806832 -0.024774004 0.03296454 -0.02612415 -0.15442699 0.105608694 -0.115545176 0.13112605 0.006572477 -0.042718213 0.1009638 0.2163045 0.06757636 -0.17807053 0.1004757 -0.0015792599 -0.04558322 -0.03024399 -0.021304423 0.033846077 0.2437975 0.07617194 -0.13223666 0.070268005 0.10451226 0.10872223 0.18672036 -0.03341181 -0.05051125 0.23611708 -0.026202809 0.23422629 -0.03825071 0.14048406 -0.14128228 -0.03222462 -0.03745682 0.09097936 -0.118281186 0.020374633 -0.26788664 0.094389975 0.19823116 -0.038618356 -0.0117651345
32 0.13016632 0.014112147 -0.03337388 -0.014933862 0.018820073 -0.12000928 -0.05088614 0.055336997 0.012278426 -0.021754188 0.054579295 -0.053894766 -0.1681092 -0.05132023 0.026309004 -0.091550596 -0.041877493 0.032366235 -0.15283251 0.052410252 0.0083912825 0.07586249 -0.045476403 0.06405224 0.017189907 -0.10947641 -0.21681114 0.0461043 0.10290603 0.016493961 0.028077042 -0.00544483 -0.13347371 -0.103735104 -0.03304988 0.065026745 -0.16597235 -0.029882293 -0.022608161 0.08382128 0.12174554 0.006939883 -0.04735614 0.05807528 -0.06886363 0.039248355 0.2835825 0.14588323 0.029707478 -0.12500307 0.075366855 0.052041844 -0.08809178 -0.20892335 0.2770644 0.12836891 0.047427762 0.21646258 -0.06337145 -0.060090154 0.01013606 0.20495929 0.084058166 -0.07444959 -0.03906137 0.18162192 -0.06922026 0.026908701 -0.21416086 -0.002772256 0.08016798 0.15101354 0.16514643 -0.038568683 -0.04581455 -0.08695873 -0.044695962 0.20008823 0.15678868 0.046475697 0.02332192 0.02940161 0.048320647 -0.21147217 -0.072542965 0.010236107 0.038470853 -0.13913725 -0.04297954 -0.063814454 0.054548156 0.047912274 -0.00047746033 0.18999645 0.09040886 0.102629386 -0.19134939 0.0718055 -0.0807206 -0.08442012 -0.020140693 -0.057317663 -0.08390333 0.31400788 0.23976077 -0.1265212 0.12827191 0.138096 0.07075928 -0.06558958 -0.12595308 -0.1043219 0.2766521 -0.15095519 0.20849843 -0.03886139 0.08026113 -0.17303139 0.07884727 0.12939884 0.015877694 -0.061090592 0.09274768 -0.14356288 0.021812027 0.20893683 0.052644055 -0.114693776
14 0.12407108 -0.03181484 0.07975575 -0.015628848 0.010798466 -0.15491432 -0.06416523 0.015631078 -0.051274568 -0.051451147 0.04036109 -0.03432979 -0.1293304 -0.075240865 -0.11950508 -0.1509262 -0.0302869 0.01598045 -0.08491915 0.016930323 0.032315303 0.051514015 -0.054429535 0.032508615 0.013067867 -0.06715099 -0.19358034 -0.031636044 0.064977586 -0.022934891 -0.066574216 -0.011893428 -0.052401498 -0.16379128 0.038091216 0.11935663 -0.037458826 -0.09099696 0.0143681755 0.084383234 0.14844105 0.025575625 0.048106242 0.08234877 -0.03702705 0.09341441 0.28371844 0.03852405 0.009067203 -0.045958955 0.07848446 0.059894487 -0.02084089 -0.14845283 0.15039212 -0.002126038 -0.030603288 0.19150145 -0.12096193 -0.04196428 -0.047074243 0.17545852 0.038198587 -0.13534892 -0.08392437 0.135885 -0.038203232 -0.019761432 -0.24068636 -0.010843067 0.20400405 0.15535451 0.111454256 -0.047834616 -0.22778113 -0.015578392 -0.05006784 0.14135891 0.10391143 -0.020853853 -0.038646765 -0.035568018 -0.042143162 -0.063713245 -0.042828124 0.02186432 -0.0046065426 -0.14837794 0.06687647 -0.10514682 0.1093795 0.017563878 -0.03168277 0.13211648 0.18283747 0.080000006 -0.1818467 0.09767601 -0.029441098 -0.05843847 -0.03049418 -0.038621657 -0.002466611 0.2676243 0.12173857 -0.13230442 0.08550113 0.11362046 0.097028844 0.11478675 -0.06187223 -0.062133856 0.24883255 -0.06190359 0.23180108 -0.04594433 0.12394591 -0.14816137 0.0014855773 0.010078819 0.07137896 -0.1027393 0.044328813 -0.23173334 0.07190189 0.19836186 -0.009104499 -0.04566015
24 0.13826832 -0.009774766 -0.005733664 -0.017457012 0.01177201 -0.13724771 -0.06033067 0.04945498 -0.009370436 -0.022124918 0.052250344 -0.04741748 -0.16338408 -0.06523633 -0.017235776 -0.10825301 -0.03694396 0.024299968 -0.1431448 0.051374093 0.013350034 0.07951295 -0.055414807 0.058726512 0.013471999 -0.09547934 -0.2177898 0.030051965 0.093753844 0.006416721 0.00092971313 -0.009624593 -0.122362405 -0.11849058 -0.0138022415 0.08427116 -0.1387469 -0.052878298 -0.005561294 0.08782726 0.13444711 0.0065431083 -0.014929729 0.07444649 -0.056373667 0.05295789 0.29258853 0.11647665 0.019783517 -0.10612183 0.086456835 0.05837141 -0.06635394 -0.1906999 0.24658209 0.09391504 0.029673975 0.21260089 -0.07894848 -0.058049176 -0.0077990973 0.20027675 0.074188896 -0.092308 -0.055833552 0.1706186 -0.0645861 0.012698788 -0.2268958 -0.008645097 0.11890441 0.14873013 0.15317951 -0.05094477 -0.098525554 -0.056486838 -0.044397775 0.19129603 0.14415592 0.024801476 0.012449691 0.014150104 0.026309028 -0.17296846 -0.07002736 0.014478387 0.03316519 -0.13999796 -0.014124253 -0.07560935 0.071067326 0.034215394 -0.0120579535 0.17844318 0.11982372 0.09253035 -0.18708172 0.078436926 -0.06309086 -0.07455717 -0.024127375 -0.056628276 -0.06136037 0.29474288 0.21449728 -0.13099936 0.1203954 0.12111848 0.074594855 -0.022044193 -0.11068326 -0.094426036 0.26736978 -0.13373007 0.2186697 -0.034330342 0.09927275 -0.17069638 0.0634159 0.10122739 0.027109526 -0.0734474 0.081157066 -0.16599418 0.039307393 0.20471533 0.035081185 -0.10134279
7 0.12648378 -0.09069202 0.18406664 -0.033137813 0.0015228902 -0.22035088 -0.08236444 -0.012710556 -0.10409433 -0.07656045 0.02354883 -0.018689562 -0.1032651 -0.081117086 -0.25892514 -0.20938754 -0.03720436 0.009620081 -0.019736981 -0.01637031 0.061611194 0.03942675 -0.07673397 -0.001251603 0.00037579503 -0.024345098 -0.16585398 -0.11291832 0.03958968 -0.060579263 -0.16354263 -0.01544784 0.014813126 -0.23835763 0.09863664 0.17979884 0.08408843 -0.15944253 0.07373805 0.08340185 0.20365533 0.03923205 0.14627448 0.11658783 -0.011994643 0.1561732 0.30193776 -0.060785804 -0.015068333 0.027996764 0.09160427 0.08437304 0.04860814 -0.078173734 0.045731604 -0.14300798 -0.09309194 0.16526107 -0.18538484 -0.016510958 -0.10909144 0.14433995 -0.004145938 -0.19249724 -0.12164433 0.094099015 -0.00473903 -0.06424042 -0.26485476 -0.016060006 0.3130653 0.1518483 0.07304699 -0.068708666 -0.40787178 0.079080544 -0.044033535 0.087185 0.05679649 -0.08214552 -0.0921688 -0.092392094 -0.1457261 0.0903779 -0.023341816 0.04030382 -0.033334453 -0.15980388 0.17897557 -0.1543758 0.17567623 -0.01808529 -0.075452514 0.08372136 0.264998 0.0531093 -0.17115061 0.13063641 0.03528927 -0.025051476 -0.05137896 -0.009302732 0.073866695 0.20872271 0.019110577 -0.14740211 0.044620883 0.073318 0.12397788 0.29426417 -0.016536731 -0.026508546 0.23233129 0.019278334 0.2610267 -0.046222053 0.19863185 -0.1420207 -0.09147006 -0.11546361 0.10890872 -0.13828346 -0.0010459437 -0.3085395 0.12832434 0.19553216 -0.07962248 0.010009894
6 0.1343668 -0.07479426 0.14803785 -0.035499424 0.0011737865 -0.21280785 -0.080292545 0.0054976293 -0.08003136 -0.06562587 0.030714102 -0.022552015 -0.11812326 -0.081065044 -0.21837662 -0.19543268 -0.040428456 0.0151961455 -0.043130968 -0.008280604 0.04818262 0.045172237 -0.073371895 0.012553172 0.0037977542 -0.042122796 -0.1776341 -0.080934264 0.052728437 -0.048395555 -0.13343114 -0.017047266 -0.01523114 -0.22193663 0.07518611 0.15988462 0.036922984 -0.14119388 0.061059408 0.08810816 0.19129795 0.034044918 0.11689398 0.107865304 -0.01820471 0.13574837 0.3074734 -0.022658989 -0.0069310414 0.0013287446 0.093397856 0.07544395 0.024394644 -0.105175294 0.094457686 -0.09523184 -0.071496435 0.17814317 -0.16918848 -0.021422029 -0.09099084 0.15860379 0.010393515 -0.1753947 -0.10837601 0.112967424 -0.013853557 -0.05072448 -0.26086196 -0.018300634 0.2743873 0.15191934 0.091946684 -0.0615478 -0.34123632 0.053012483 -0.042771295 0.111144565 0.07622387 -0.06247258 -0.07412056 -0.073383756 -0.10579264 0.034235008 -0.03613574 0.039889306 -0.018130414 -0.15487058 0.13665499 -0.13419598 0.15508766 -0.009346798 -0.06366301 0.09974426 0.2351451 0.06448519 -0.17051272 0.11602701 0.011457617 -0.037335362 -0.03858634 -0.02016601 0.049905647 0.22734284 0.054348405 -0.14386918 0.064268574 0.08259283 0.11344889 0.22830977 -0.037660692 -0.040322423 0.23814297 -0.011064064 0.25109813 -0.039883334 0.18065487 -0.14946976 -0.06149876 -0.071842566 0.0927628 -0.12197325 0.016212432 -0.28223422 0.10839287 0.19866027 -0.057331122 -0.01259217
8 0.124361254 -0.034598295 0.07162632 -0.017532261 0.005549381 -0.15080018 -0.058300167 0.018013127 -0.04493872 -0.05105434 0.03415272 -0.029890984 -0.12553564 -0.06891356 -0.11963337 -0.14406197 -0.026853513 0.011533537 -0.0829262 0.023191232 0.03757662 0.05074858 -0.053131685 0.027850058 0.016171632 -0.06748356 -0.19172183 -0.03405542 0.05877025 -0.024246847 -0.06740591 -0.011651204 -0.05144368 -0.16361016 0.034601867 0.11279466 -0.036157917 -0.09086327 0.020671282 0.083762884 0.14252901 0.025727354 0.04452355 0.07780271 -0.029861214 0.087225795 0.27274743 0.030494854 0.0030694772 -0.04450481 0.08071816 0.062978245 -0.019457733 -0.1368026 0.14236715 -0.012111379 -0.032602917 0.18108578 -0.122696616 -0.038305465 -0.042201508 0.16665037 0.03599079 -0.13227111 -0.079205684 0.12488911 -0.034516163 -0.023013081 -0.23559014 -0.0064449916 0.20334168 0.15232144 0.10623211 -0.050366696 -0.22472593 -0.015813308 -0.045105785 0.13582608 0.09875742 -0.020734115 -0.038572844 -0.031118104 -0.046946548 -0.058951337 -0.04049572 0.027522972 -0.0075578038 -0.14318173 0.068946 -0.10308961 0.10716755 0.015893605 -0.03449634 0.1258981 0.17684048 0.07880144 -0.17697246 0.094803706 -0.025528604 -0.051716305 -0.030808583 -0.03115314 0.0010696133 0.2564973 0.115636006 -0.124415554 0.08433374 0.104941666 0.09589221 0.117427886 -0.05674415 -0.063111655 0.23616266 -0.06261715 0.22608104 -0.041919466 0.12044744 -0.1435965 -0.005641797 0.0017173759 0.064793594 -0.0982484 0.04183685 -0.21864773 0.073393956 0.1931265 -0.008251968 -0.043891806
30 0.1330193 -0.010449491 0.011860212 -0.019487537 0.0071266494 -0.14307973 -0.056365836 0.043378312 -0.012109858 -0.02785698 0.049451575 -0.04619753 -0.15530033 -0.06097148 -0.04329438 -0.11806364 -0.03700205 0.025217723 -0.12015102 0.038188957 0.015762325 0.06892111 -0.049694728 0.047477424 0.011594074 -0.090354055 -0.20317994 0.009120932 0.088673756 0.0022204632 -0.01746041 -0.01492113 -0.103513494 -0.13228905 -0.00020421942 0.09159816 -0.11425586 -0.06648799 0.0031269565 0.0832015 0.13966973 0.013169822 0.0021556846 0.07671309 -0.05351677 0.059201468 0.27882853 0.09073227 0.01824967 -0.08738079 0.083961055 0.053763993 -0.057553373 -0.17702521 0.21902353 0.06460922 0.014426007 0.2059745 -0.09231839 -0.054445643 -0.02044063 0.18843897 0.06468038 -0.09854639 -0.06292807 0.15875086 -0.056383725 0.0007940567 -0.2233759 -0.005700943 0.13822952 0.14568797 0.13887893 -0.047682703 -0.12160021 -0.04477139 -0.03965098 0.1754872 0.12973392 0.009040236 0.0041608736 0.0023743047 0.004893353 -0.1443115 -0.067486405 0.017887915 0.020329943 -0.13990928 0.0042350944 -0.082350135 0.08536129 0.030510051 -0.019372094 0.16294406 0.12712637 0.0855702 -0.178978 0.07674404 -0.049543202 -0.06801801 -0.02488927 -0.04588893 -0.04230521 0.2788549 0.18315713 -0.12831259 0.1044522 0.11039022 0.07408803 0.009287834 -0.0915908 -0.08549281 0.25376278 -0.11184687 0.214513 -0.038236443 0.10032977 -0.15962243 0.040407352 0.07102639 0.03662376 -0.07735071 0.07139254 -0.1736918 0.04820124 0.20009187 0.025573643 -0.08285124
9 0.13669531 -0.024855735 0.04321087 -0.020024417 0.007883992 -0.15908316 -0.063131705 0.03332864 -0.028243978 -0.043244302 0.042110357 -0.044949394 -0.15249501 -0.06674642 -0.07358986 -0.13923137 -0.040392317 0.024829978 -0.109507166 0.030126663 0.024654089 0.067084596 -0.059846383 0.04014377 0.009223382 -0.08226382 -0.199026 -0.0071965503 0.07886117 -0.01040828 -0.038522158 -0.008797913 -0.07979536 -0.15700033 0.008469207 0.10235845 -0.082391225 -0.07418926 0.016116729 0.08247571 0.151072 0.01785039 0.020330623 0.084293105 -0.051721293 0.080044664 0.2958499 0.072110415 0.015633492 -0.07629175 0.087375104 0.062790334 -0.04126816 -0.16688089 0.19887851 0.03295838 -0.0016981041 0.20257583 -0.10812519 -0.04813563 -0.02884687 0.1891896 0.05556877 -0.11526554 -0.06835421 0.15252881 -0.047595184 -0.0038641926 -0.2331588 -0.0065422147 0.16474482 0.1515451 0.13016762 -0.0481538 -0.16902168 -0.03226204 -0.046045944 0.16856642 0.12095023 -0.0020756435 -0.0137191545 -0.013669776 -0.014671393 -0.11229131 -0.05939142 0.019468164 0.012765526 -0.14757532 0.030853394 -0.097933866 0.09378839 0.019292152 -0.025330598 0.1502217 0.14841324 0.084374875 -0.18842164 0.09228156 -0.04300106 -0.06586016 -0.026178157 -0.03920591 -0.028528243 0.28117043 0.16319457 -0.13371105 0.100715734 0.11769717 0.09167251 0.059407823 -0.08620527 -0.08402584 0.26689312 -0.094375536 0.22521457 -0.040430762 0.123151086 -0.16296817 0.025443032 0.047168322 0.052240238 -0.09206981 0.06398049 -0.20525317 0.06365964 0.20498778 0.007249788 -0.070252806
28 0.13826907 -0.003015512 -0.02210016 -0.019072521 0.017238282 -0.13502106 -0.053797536 0.059635404 0.007149038 -0.024405032 0.05849482 -0.059154216 -0.17114532 -0.0613276 0.0003448409 -0.10834347 -0.043886844 0.03076974 -0.14958592 0.045877576 0.0102291 0.079471946 -0.04738636 0.063216165 0.012678844 -0.10501279 -0.21122146 0.03341863 0.100436576 0.013246743 0.01295856 -0.010274287 -0.1269344 -0.112655066 -0.021839196 0.08108681 -0.15465564 -0.046838455 -0.0038952506 0.08597993 0.13648114 0.0024338462 -0.026366375 0.0677858 -0.06570863 0.047707252 0.28905928 0.12145049 0.023450928 -0.11750568 0.08385434 0.05477478 -0.07386936 -0.19721024 0.25977486 0.101888075 0.039256133 0.21794617 -0.072718516 -0.05741056 -0.0034755787 0.20345803 0.080043815 -0.08239675 -0.051333174 0.17450202 -0.0699961 0.018679308 -0.21849601 -0.0042174966 0.09970463 0.14468268 0.15314208 -0.04756302 -0.069471925 -0.06699609 -0.04415242 0.19251336 0.14270678 0.028773896 0.017490905 0.017541572 0.029270662 -0.18997984 -0.07759553 0.01508723 0.039196856 -0.13376594 -0.0279014 -0.0750368 0.07006975 0.04223203 -0.012857527 0.18164071 0.10265258 0.09747541 -0.18636213 0.07404782 -0.070754744 -0.07303892 -0.014777689 -0.056109935 -0.066715546 0.3000459 0.22145239 -0.13100298 0.123099804 0.12694593 0.07277047 -0.040378977 -0.11556029 -0.10354414 0.26906747 -0.13460752 0.2136038 -0.037670303 0.09368882 -0.17014883 0.06813173 0.10706754 0.018840265 -0.06411123 0.08312851 -0.15646711 0.034690227 0.20724033 0.040693663 -0.10186023
20 0.12570597 -0.025133237 0.057523053 -0.015661726 0.009698987 -0.15467142 -0.058329202 0.022447478 -0.041465107 -0.047693707 0.040925805 -0.032667395 -0.13807261 -0.068893276 -0.10054392 -0.13717867 -0.028910525 0.019977905 -0.095327385 0.024360763 0.03195129 0.056907192 -0.05802245 0.032477476 0.0124596255 -0.07649222 -0.19708203 -0.020369815 0.068560556 -0.018375965 -0.053352933 -0.0125575 -0.06881583 -0.15265647 0.025090136 0.113016516 -0.05607965 -0.086228326 0.012125128 0.08534102 0.14455217 0.021205513 0.031852607 0.07455431 -0.041593365 0.08930605 0.2819233 0.052352592 0.006961996 -0.05485283 0.077547126 0.06166387 -0.029091781 -0.1544833 0.16614775 0.012851362 -0.013994101 0.19266611 -0.1149477 -0.04128296 -0.036751397 0.1725488 0.039484248 -0.12712862 -0.07789499 0.13952614 -0.035975542 -0.009182015 -0.23851162 -0.012215877 0.18549275 0.15178241 0.118665226 -0.049600076 -0.19888353 -0.021566823 -0.04034273 0.14636719 0.109503806 -0.010212688 -0.031175394 -0.021561353 -0.029869173 -0.078033306 -0.047069713 0.022723613 0.0010940344 -0.14476325 0.05068933 -0.098661855 0.102886826 0.019804366 -0.03083072 0.13632876 0.16403916 0.07960027 -0.18187945 0.08928429 -0.030265704 -0.060534902 -0.030430857 -0.038614444 -0.0069765244 0.26712373 0.13907526 -0.12610367 0.09163107 0.11390947 0.09498006 0.09044833 -0.069869585 -0.068625554 0.25249174 -0.07907837 0.22520024 -0.037854802 0.11773127 -0.15329477 0.006586116 0.025089957 0.061406717 -0.09555792 0.048505392 -0.21677572 0.069554456 0.19838044 -0.003638758 -0.05981458
5 0.12786879 -0.07483673 0.1585904 -0.036069464 0.005731291 -0.21346308 -0.08136137 -0.0009644258 -0.08871126 -0.07078742 0.02239904 -0.017239798 -0.10963996 -0.07722472 -0.22455299 -0.19732124 -0.039661586 0.0143358605 -0.03780126 -0.010438564 0.052161403 0.041493762 -0.07165225 0.0073034223 0.0028033294 -0.033302963 -0.16769058 -0.090796344 0.051185194 -0.05148126 -0.14404058 -0.019348033 -0.0073116194 -0.2261079 0.085002705 0.163337 0.046601657 -0.14403945 0.06596761 0.08571556 0.19257744 0.032662332 0.1272184 0.10777425 -0.018272167 0.14367509 0.30375934 -0.037136108 -0.004450984 0.007827886 0.08815579 0.08440806 0.035947338 -0.09941642 0.07631652 -0.10503568 -0.07890881 0.17809531 -0.16691807 -0.020965973 -0.09096786 0.15672329 0.0053638797 -0.17692399 -0.116453 0.102274776 -0.014539453 -0.05041174 -0.25912592 -0.015216742 0.28653434 0.14785057 0.08224221 -0.06434469 -0.3641583 0.05919175 -0.043190904 0.10167251 0.075058326 -0.06970876 -0.07416018 -0.08280091 -0.119675346 0.047988053 -0.028734598 0.037811697 -0.026570177 -0.15868206 0.14836757 -0.14465235 0.15912163 -0.008586663 -0.06723997 0.094776735 0.24534875 0.059122026 -0.17595635 0.11899669 0.01858243 -0.030631598 -0.046911616 -0.021239711 0.052237142 0.22592343 0.041266683 -0.13999665 0.057555925 0.084822856 0.119493626 0.2448155 -0.032439433 -0.03485416 0.24054885 -0.004487437 0.2552029 -0.03953795 0.18270762 -0.14882845 -0.06894556 -0.082984306 0.09389937 -0.13261116 0.014137287 -0.29306567 0.11816276 0.19947766 -0.062552236 -0.0065300874
31 0.13565347 -0.009002571 0.0001180846 -0.0230998 0.013623264 -0.14210664 -0.056790616 0.05122786 -0.0029729682 -0.031272884 0.053014908 -0.047922436 -0.16401437 -0.057607383 -0.029168144 -0.11542766 -0.045441385 0.032767642 -0.13780259 0.04906535 0.009460029 0.0708215 -0.055794783 0.048192497 0.008906626 -0.099114515 -0.21489154 0.020552319 0.09395989 0.0017320544 -0.009182578 -0.010623974 -0.11321365 -0.13233651 -0.013968999 0.08938417 -0.13086823 -0.06033821 0.0053644655 0.08799986 0.14050893 0.011804559 -0.007989244 0.073920734 -0.05997006 0.052737214 0.2864602 0.10758746 0.019171853 -0.09885646 0.08372164 0.05835661 -0.06484016 -0.18883695 0.24277398 0.07773524 0.027190618 0.21004353 -0.08128469 -0.058946062 -0.010975418 0.19987977 0.065495156 -0.0919042 -0.0562546 0.17017148 -0.06010905 0.00991309 -0.22515395 -0.003746548 0.12671912 0.15149005 0.14787413 -0.05197456 -0.10793337 -0.054580156 -0.04026749 0.18678303 0.14179249 0.019342955 0.011089619 0.009876883 0.017070934 -0.17077558 -0.07347446 0.015039912 0.033793915 -0.14261788 -0.0030616303 -0.08079592 0.08133807 0.03250881 -0.016250804 0.17493369 0.11950322 0.09728182 -0.18489073 0.08024857 -0.06016021 -0.07373068 -0.02149818 -0.04880566 -0.05489495 0.2975608 0.20742333 -0.12896085 0.1192338 0.11914951 0.074744634 -0.010681014 -0.10441173 -0.09038751 0.27180734 -0.12801023 0.21944836 -0.041659374 0.09936388 -0.17006561 0.050442602 0.09139949 0.030495374 -0.07441962 0.08017497 -0.16835064 0.044016477 0.2049886 0.03512669 -0.09834298
11 0.12955555 -0.058093775 0.12787537 -0.031705204 0.004346018 -0.19547555 -0.07517254 0.006917712 -0.075037405 -0.061400667 0.029025713 -0.02991555 -0.12459512 -0.07536714 -0.18570466 -0.18243854 -0.041277245 0.019860083 -0.054931123 0.0016516303 0.046188045 0.04142859 -0.06390642 0.017710796 0.004997762 -0.050591294 -0.17359462 -0.06827931 0.054546148 -0.044133488 -0.113418505 -0.019273577 -0.016623503 -0.2066346 0.0661997 0.14117767 0.013547169 -0.12348253 0.048488345 0.08568283 0.18157971 0.034213 0.09927032 0.09940021 -0.023781374 0.1199113 0.2932755 -0.0071677756 -0.0017519369 -0.013546035 0.08632933 0.077218994 0.016065085 -0.11232513 0.10238843 -0.07064133 -0.05994889 0.18045025 -0.15529457 -0.03132967 -0.078783706 0.1618824 0.014365486 -0.16044018 -0.103436284 0.117237434 -0.021445066 -0.03904023 -0.25469273 -0.015371997 0.24863406 0.15153179 0.09133701 -0.058435667 -0.30542317 0.03425114 -0.03952601 0.115607165 0.08209282 -0.05517201 -0.06345017 -0.065248676 -0.09009412 0.009394131 -0.039132707 0.029331611 -0.013037303 -0.14724472 0.11933197 -0.12191071 0.14278765 -0.0039751446 -0.055211615 0.10480512 0.21846029 0.06807527 -0.17091644 0.11349746 0.002928906 -0.043055933 -0.039607577 -0.019007647 0.03809325 0.23129024 0.074742995 -0.13666634 0.06899607 0.09328042 0.109255224 0.19884951 -0.04077151 -0.051668644 0.24182981 -0.020399146 0.239664 -0.038201444 0.16496158 -0.15025695 -0.047259923 -0.053079788 0.08107555 -0.11477454 0.027845355 -0.26669732 0.100664705 0.20074502 -0.043585036 -0.015367928
29 0.12848502 -0.020827902 0.033672296 -0.015669676 0.013301028 -0.14292704 -0.056557104 0.034728833 -0.02671686 -0.03516765 0.044920016 -0.044234335 -0.14220084 -0.06360596 -0.064374834 -0.12524618 -0.034875285 0.019681595 -0.115294814 0.037860673 0.025132058 0.06013 -0.05306498 0.040730096 0.00826068 -0.084324144 -0.19943672 -0.00046645472 0.078932546 -0.012575867 -0.033214554 -0.009667897 -0.081626385 -0.13969314 0.008146255 0.09508699 -0.08869561 -0.06609106 0.0082587395 0.07838551 0.14056437 0.019611474 0.012967915 0.074702576 -0.045885883 0.072958805 0.2766591 0.07617319 0.014247362 -0.071206614 0.07934292 0.055943463 -0.04366416 -0.16972248 0.19656473 0.0390167 0.0017633939 0.19982348 -0.10187089 -0.046584755 -0.022888226 0.185214 0.051814716 -0.111738995 -0.06376623 0.14713982 -0.050865106 0.0002285821 -0.23011713 -0.0070108855 0.15333222 0.144477 0.13109992 -0.050992277 -0.16203266 -0.036109537 -0.041065823 0.16596454 0.12387324 0.0029459288 -0.013569386 -0.0087834 -0.010540949 -0.11998739 -0.056330226 0.02064019 0.014976096 -0.14054056 0.02373292 -0.0898263 0.092234865 0.028063996 -0.020303305 0.1478294 0.1434409 0.08918263 -0.1865439 0.0888823 -0.045811154 -0.06472098 -0.026683219 -0.044955634 -0.02669368 0.27851474 0.16755348 -0.12884057 0.10319166 0.11981038 0.085929915 0.044637393 -0.088424526 -0.08239409 0.25949562 -0.09266544 0.21940961 -0.035776358 0.11011609 -0.15431161 0.02811036 0.0554418 0.04419679 -0.08638489 0.061064407 -0.19677064 0.05698503 0.20106184 0.0100402 -0.0732581
25 0.13737692 0.00094197196 -0.033340197 -0.011853788 0.020954313 -0.12851346 -0.05359844 0.06415086 0.010406354 -0.0154388 0.063115455 -0.05861458 -0.16979177 -0.059640206 0.015612348 -0.094385386 -0.046458073 0.0282593 -0.15977065 0.05881317 0.0040809955 0.08756002 -0.051560443 0.068095975 0.008992099 -0.10991322 -0.22602007 0.044836 0.10906106 0.019100709 0.029308263 -0.0050643734 -0.14372672 -0.10360337 -0.034399223 0.07384868 -0.16634177 -0.03551214 -0.016323408 0.08010675 0.12719692 0.0057605007 -0.038343273 0.06388522 -0.061612245 0.038032707 0.2871312 0.14559957 0.027071798 -0.12377681 0.0806205 0.054937664 -0.083409645 -0.21033275 0.2793082 0.124335 0.04673994 0.22299992 -0.063248366 -0.058818746 0.008946355 0.20950122 0.08152119 -0.0714428 -0.04230359 0.18656646 -0.071676545 0.022553826 -0.21517469 -0.003098028 0.07905205 0.14851409 0.16191848 -0.051285878 -0.051012933 -0.08115025 -0.038944326 0.20744297 0.15013324 0.038992576 0.028750181 0.032598913 0.04522428 -0.21727495 -0.07866423 0.01061966 0.049035106 -0.13524495 -0.037898794 -0.06873314 0.06363195 0.045946002 -0.0041665216 0.19087912 0.094312474 0.100368544 -0.1882945 0.0754849 -0.08209232 -0.08412367 -0.019098688 -0.06051443 -0.08159413 0.30877876 0.24249661 -0.13010515 0.1259131 0.13351598 0.0699013 -0.072282076 -0.12905136 -0.105731286 0.27678752 -0.15473008 0.21014391 -0.0366673 0.083416 -0.17639486 0.08286777 0.13487153 0.012732616 -0.059345108 0.09470325 -0.14184491 0.029750941 0.20730509 0.05562749 -0.12014032
26 0.1377719 -0.0038069922 0.000225881 -0.016924696 0.013876515 -0.13896424 -0.051398095 0.05007841 -0.0071403864 -0.022068797 0.05270533 -0.05003276 -0.16714805 -0.059842207 -0.022254655 -0.10731479 -0.04181 0.026003035 -0.14480276 0.043769117 0.007541262 0.07864371 -0.05286893 0.05663788 0.009502103 -0.09457585 -0.20931824 0.029362515 0.09790525 0.0050200885 0.0025714391 -0.007939015 -0.11711024 -0.12052992 -0.0146017 0.08808101 -0.13305482 -0.050373532 -0.007329951 0.08676239 0.137198 0.0066710515 -0.019054227 0.070166476 -0.060004033 0.049663257 0.29333583 0.11368434 0.024368905 -0.10676579 0.08346729 0.058257468 -0.06873563 -0.1944903 0.24458249 0.08812415 0.026285496 0.2144158 -0.07603394 -0.059572063 -0.0025492092 0.19979565 0.07466792 -0.086160965 -0.053827405 0.17368153 -0.063259475 0.0126743 -0.2265882 -0.0039569987 0.11928936 0.15188774 0.15232737 -0.04953512 -0.09635549 -0.06502946 -0.04366697 0.1929521 0.14337529 0.022559892 0.00826342 0.010492116 0.022572605 -0.17815582 -0.07360445 0.011899711 0.034897722 -0.14343487 -0.014043558 -0.08091508 0.07647323 0.033946637 -0.013106184 0.17775322 0.11320258 0.09224765 -0.18841788 0.07730049 -0.06592684 -0.07176808 -0.019559482 -0.056866955 -0.056052726 0.3003591 0.21056046 -0.13093206 0.12002755 0.12949547 0.07415718 -0.022290645 -0.1121387 -0.09704153 0.2724513 -0.12921783 0.21583803 -0.035539657 0.09936821 -0.17076863 0.059523493 0.10081631 0.028656017 -0.070088655 0.083745964 -0.16917081 0.03758815 0.19957896 0.039887127 -0.09901224
17 0.12063348 -0.090926975 0.18364757 -0.038533803 0.0026131466 -0.22171867 -0.07851894 -0.008504259 -0.09955317 -0.07660906 0.020265654 -0.012984423 -0.10429706 -0.07760185 -0.26446372 -0.21195447 -0.03918874 0.011701054 -0.022462389 -0.017563473 0.05834928 0.03655427 -0.07694899 0.0024693569 0.0018637533 -0.017509172 -0.15172191 -0.11539049 0.039765168 -0.06292717 -0.1634799 -0.020216327 0.021886434 -0.23773234 0.09978755 0.1733991 0.08297617 -0.15604618 0.08004549 0.08794425 0.20427735 0.035339363 0.14657964 0.11884215 -0.008777278 0.15379786 0.29869533 -0.06712035 -0.009403837 0.024261594 0.09169413 0.08479874 0.052938145 -0.07364783 0.041464753 -0.14528847 -0.09078994 0.16713321 -0.18069719 -0.012094893 -0.104951926 0.14152956 -0.004928632 -0.18849409 -0.12780142 0.08422941 -0.007661311 -0.058397893 -0.26587817 -0.015199267 0.30949387 0.14382978 0.065809794 -0.06957225 -0.4002761 0.08421194 -0.047726747 0.08275732 0.05439569 -0.083812125 -0.09731432 -0.09918028 -0.14324877 0.093659386 -0.025305863 0.037880775 -0.040138185 -0.14927474 0.17764314 -0.14734165 0.1763781 -0.014955174 -0.07756144 0.08098994 0.2636793 0.049737073 -0.16987734 0.1289619 0.040146492 -0.022796387 -0.046352427 -0.012883056 0.07609493 0.20256828 0.0067506097 -0.14344962 0.04762109 0.06849916 0.12227792 0.29154125 -0.016772447 -0.022074813 0.22669514 0.022679295 0.25570968 -0.04144995 0.2003214 -0.14073563 -0.09183802 -0.120570585 0.10426729 -0.13990876 0.00012932 -0.30339196 0.1314275 0.18979317 -0.080404945 0.014323549
22 0.11346084 -0.052503828 0.12299751 -0.021889983 0.005024188 -0.1703099 -0.066987045 0.006055124 -0.070579425 -0.060874846 0.02788355 -0.017669441 -0.108691126 -0.072322614 -0.17219354 -0.16597523 -0.030266285 0.008012252 -0.049452506 0.0050163185 0.039724406 0.034982737 -0.06255268 0.01255512 0.006205782 -0.041889578 -0.16495378 -0.06431558 0.048555203 -0.042151626 -0.10648943 -0.017742513 -0.01580238 -0.18762334 0.063210584 0.13650116 0.018453008 -0.10917089 0.035437763 0.0780976 0.15483111 0.028129913 0.087201536 0.08822523 -0.022693291 0.11197705 0.26317284 -0.014561567 -0.0038231465 -0.01080354 0.08000643 0.06814469 0.011647662 -0.105432615 0.09318326 -0.06168921 -0.056821454 0.16435412 -0.1421072 -0.028337514 -0.07003831 0.14385365 0.010212607 -0.15136348 -0.09811088 0.10370913 -0.016298652 -0.039034143 -0.23550503 -0.00884079 0.2389412 0.1378431 0.080804326 -0.046769265 -0.29052198 0.02506852 -0.040871706 0.10184794 0.07076719 -0.045500644 -0.05709441 -0.062370013 -0.07988448 0.013099344 -0.033781588 0.029006766 -0.020888854 -0.13689227 0.10953778 -0.11351989 0.123870626 0.0008715654 -0.0449547 0.0938102 0.20710908 0.06251342 -0.1634252 0.09805574 0.0026033055 -0.04145777 -0.03165625 -0.021568248 0.033784896 0.22188435 0.06231799 -0.12386803 0.057488706 0.087640986 0.09877854 0.18742357 -0.03102556 -0.03923069 0.21866596 -0.017041883 0.22257158 -0.039984882 0.14668249 -0.13164444 -0.04151493 -0.050721917 0.08587942 -0.108098336 0.025350109 -0.2500855 0.09101163 0.17734653 -0.04045672 -0.016066479
10 0.12676437 -0.021122715 0.045773976 -0.018009715 0.0060650376 -0.15054904 -0.06326485 0.032058477 -0.028906843 -0.039167274 0.040990274 -0.03648889 -0.1383437 -0.063508414 -0.079928815 -0.13792475 -0.034005556 0.019667657 -0.10362667 0.031854335 0.02582702 0.057085432 -0.057556733 0.03916033 0.011381375 -0.07766705 -0.19877352 -0.012748667 0.071616605 -0.014421713 -0.043305133 -0.008159112 -0.07425818 -0.14385031 0.019768419 0.104680575 -0.07167808 -0.07408766 0.012729628 0.08278856 0.13853873 0.020749517 0.028441645 0.0744061 -0.043812584 0.0745433 0.2825752 0.06811444 0.014738448 -0.06679018 0.07837747 0.056308016 -0.035029452 -0.15983823 0.18056774 0.03068734 -0.0046785665 0.1903966 -0.10435458 -0.051109202 -0.031057887 0.17506991 0.049466964 -0.120086074 -0.06984421 0.14609884 -0.048011158 -0.0066932514 -0.22786379 -0.0042070416 0.17301576 0.14836279 0.124590494 -0.045331102 -0.17878911 -0.0331305 -0.04583599 0.1501378 0.11679109 -0.007930523 -0.016044782 -0.02114248 -0.018239453 -0.09924679 -0.056260098 0.019761104 0.007377552 -0.139185 0.03419742 -0.09607904 0.09123192 0.020682087 -0.027373083 0.14151023 0.1531351 0.08313486 -0.18337783 0.09055992 -0.03802244 -0.062604845 -0.029392589 -0.03733225 -0.02060476 0.27110395 0.15195341 -0.12628289 0.09407749 0.11687905 0.08493085 0.06738292 -0.07376184 -0.07118894 0.25201854 -0.08888273 0.22184858 -0.03949285 0.110278584 -0.15083086 0.01608739 0.036621008 0.051450927 -0.0881489 0.06194635 -0.20887412 0.0636028 0.19889142 0.0060979254 -0.06615625
19 0.1329658 -0.0063041192 0.0073809694 -0.017030314 0.008085848 -0.13379309 -0.060595587 0.04649028 -0.009430971 -0.03431056 0.047630154 -0.043206412 -0.15926957 -0.059445348 -0.036574252 -0.1224058 -0.03579117 0.02585919 -0.12384145 0.04330068 0.014533574 0.07206274 -0.052129745 0.05151251 0.009245968 -0.09959379 -0.21125185 0.018202683 0.0853186 0.0016991649 -0.011732293 -0.013874426 -0.10344844 -0.1333222 -0.010581706 0.085208006 -0.11974962 -0.056594376 -0.0010977704 0.08555598 0.13163812 0.016244452 -0.005216403 0.069026254 -0.05870992 0.059457384 0.28739595 0.10040513 0.017308664 -0.09540845 0.085070774 0.055103082 -0.06493403 -0.18696329 0.23187667 0.07158674 0.01937795 0.20659894 -0.09360366 -0.054126732 -0.010450281 0.19467817 0.064444184 -0.09640197 -0.061875064 0.16062157 -0.05687768 0.0026949083 -0.23004156 -0.002161833 0.13959338 0.15275969 0.14688142 -0.04584751 -0.11702697 -0.054046243 -0.042654615 0.1746605 0.13670065 0.020765882 0.0047666137 0.0074252435 0.013194799 -0.15627109 -0.0642606 0.021823354 0.02117013 -0.1429911 0.0013300594 -0.07941218 0.074527174 0.030430239 -0.020561012 0.16901693 0.122838184 0.09147615 -0.18960536 0.07535457 -0.05883255 -0.06770774 -0.022910342 -0.048825677 -0.049690522 0.29920208 0.19947898 -0.13453959 0.114599325 0.12125113 0.08085204 0.008414291 -0.09864313 -0.08930348 0.2625113 -0.12177376 0.21629117 -0.035440624 0.09481921 -0.16532902 0.047476377 0.08224964 0.03448471 -0.07517262 0.07858051 -0.17986448 0.042062286 0.20719002 0.032583464 -0.08926922
23 0.1393592 -0.0037147636 -0.004083166 -0.021733573 0.008489239 -0.14320982 -0.059394963 0.05315421 -0.0025415737 -0.02661941 0.049460728 -0.05409404 -0.16858296 -0.064976774 -0.025239244 -0.115565024 -0.03820714 0.03333851 -0.13917038 0.04804267 0.008535803 0.07462567 -0.05048115 0.055118028 0.008525888 -0.101846285 -0.21431512 0.027573952 0.09320649 0.0013435468 -0.0026070718 -0.0153656 -0.11131779 -0.13578199 -0.015688034 0.087883964 -0.13931319 -0.054275565 0.0021656265 0.09175102 0.13943845 0.012668062 -0.010911224 0.078079 -0.062856846 0.055090316 0.2998772 0.11251522 0.023171233 -0.105744794 0.087234415 0.058127385 -0.069227226 -0.19886422 0.24926038 0.08339967 0.022600234 0.21681225 -0.085194185 -0.061727043 -0.008814139 0.20177779 0.07283369 -0.09431989 -0.060390078 0.17167097 -0.063451245 0.008451988 -0.22664939 -0.0010277469 0.12637813 0.14783414 0.15204352 -0.045924913 -0.102684565 -0.054715797 -0.03841098 0.18799473 0.144732 0.017228857 0.0146408025 0.0051122513 0.020552507 -0.17237918 -0.07430645 0.021329075 0.02866802 -0.14410414 -0.0072755376 -0.08549941 0.07537898 0.035939172 -0.01650571 0.17757939 0.117646635 0.09277999 -0.18665333 0.07747535 -0.06291238 -0.07496434 -0.020325445 -0.053265505 -0.05566744 0.30253553 0.21229824 -0.1365619 0.12369359 0.1249577 0.07463559 -0.009500137 -0.10287568 -0.098974295 0.27549195 -0.12446037 0.21913865 -0.03827051 0.10047005 -0.16790284 0.058213893 0.09388811 0.027774185 -0.07583673 0.08008414 -0.17149377 0.039169945 0.21037368 0.03990637 -0.09900703
13 0.12515798 -0.050056357 0.105313726 -0.025977189 0.0054670987 -0.17966324 -0.067409396 0.012531439 -0.06485218 -0.058964655 0.031168655 -0.02654388 -0.13435543 -0.07800682 -0.16332757 -0.17508392 -0.031441588 0.010763604 -0.07275576 0.013931006 0.04318135 0.04685442 -0.060183182 0.025536353 0.0124090705 -0.061769046 -0.1929587 -0.052748643 0.052609958 -0.037205096 -0.09993727 -0.012313332 -0.038956884 -0.18839651 0.0563164 0.13676734 -0.0149686085 -0.10707335 0.026618063 0.08749058 0.16943872 0.030405805 0.0712848 0.08681815 -0.029017273 0.113477215 0.29829648 0.009921857 0.004727134 -0.030411152 0.085802786 0.06864037 -0.008062946 -0.13759191 0.13354653 -0.040354468 -0.05061428 0.19216837 -0.14672603 -0.03509595 -0.060732502 0.16678882 0.026724994 -0.15860331 -0.09889624 0.12221941 -0.025084892 -0.03057761 -0.25210485 -0.016232643 0.24332695 0.1601866 0.10547338 -0.05073577 -0.2745987 0.0059625753 -0.047434878 0.12705961 0.09580664 -0.037647728 -0.05565217 -0.053177334 -0.07483383 -0.020148713 -0.03795029 0.02962688 -0.01757638 -0.15519466 0.09490426 -0.120073356 0.12547703 0.003700985 -0.04201266 0.117417276 0.20554782 0.07470922 -0.18283793 0.10393309 -0.008928395 -0.054070152 -0.030960197 -0.027156103 0.022846278 0.2615169 0.09967969 -0.13960978 0.07763309 0.10596088 0.109879665 0.16887647 -0.045821615 -0.05202536 0.24997222 -0.04766498 0.24783865 -0.041631576 0.13986179 -0.15222116 -0.02745206 -0.029127674 0.085991174 -0.11288797 0.031157121 -0.26006934 0.09106895 0.20372516 -0.028529303 -0.023601739
27 0.13816248 -0.0064427787 -0.011665924 -0.01921292 0.011933312 -0.1260072 -0.053184375 0.049589287 0.00082655763 -0.020552773 0.052268803 -0.04967077 -0.16563769 -0.060054615 -0.012382031 -0.10715803 -0.03963295 0.03082811 -0.14200222 0.053071532 0.009409785 0.07295843 -0.05240856 0.05754455 0.013982238 -0.10374213 -0.21309967 0.02951618 0.095611654 0.009215502 0.008742868 -0.007581471 -0.11776505 -0.11903392 -0.018975083 0.07701659 -0.14292315 -0.052184235 -0.0020889228 0.08376195 0.12611501 0.008064117 -0.019214677 0.06874362 -0.059882056 0.047587838 0.2842877 0.12015079 0.019449659 -0.10369776 0.08224804 0.057582106 -0.07259468 -0.19527782 0.24209754 0.088934645 0.02925718 0.21187511 -0.07792041 -0.058741942 0.001579769 0.19639556 0.06794296 -0.083723985 -0.053272903 0.1697448 -0.059640046 0.00987618 -0.22135164 -0.0035694772 0.11780888 0.14763683 0.14802028 -0.05127082 -0.084805794 -0.06546075 -0.037772413 0.19322868 0.13934542 0.025347466 0.013348311 0.016946182 0.023389166 -0.18301076 -0.07541996 0.019363001 0.03515035 -0.13275288 -0.015751824 -0.071476385 0.06995664 0.039860338 -0.0084683085 0.17895848 0.106213644 0.09312295 -0.18349752 0.07293219 -0.066261604 -0.07622862 -0.023286115 -0.053184535 -0.05918871 0.3002581 0.21005419 -0.12733369 0.12242284 0.11978347 0.070399635 -0.02995844 -0.103432514 -0.0977571 0.26668823 -0.13058558 0.20958698 -0.03686368 0.092739716 -0.16488644 0.064635016 0.10431311 0.025279514 -0.07008896 0.08525765 -0.16329631 0.03885554 0.1982442 0.04501207 -0.09808113
18 0.12742321 -0.05516143 0.13718715 -0.025075264 0.0038186621 -0.19101655 -0.07755562 -0.000691541 -0.07776133 -0.06459119 0.028434582 -0.02309539 -0.11949471 -0.079677805 -0.19519047 -0.18703994 -0.035378456 0.012710855 -0.051637545 -0.00083819404 0.05005239 0.036349125 -0.063932 0.017484032 0.012586078 -0.04406972 -0.18651916 -0.07609355 0.050280213 -0.04858898 -0.12618105 -0.015300829 -0.015175666 -0.20455207 0.076944806 0.15232998 0.027396064 -0.11773122 0.04165676 0.09034469 0.17743339 0.03144481 0.09998759 0.09059473 -0.023390999 0.12646136 0.29407072 -0.020251855 -0.0004159659 -0.006794775 0.08579753 0.06893909 0.01645408 -0.116511345 0.09852899 -0.07710483 -0.064836994 0.17909107 -0.15636617 -0.0326314 -0.08116746 0.16553837 0.013667491 -0.16917984 -0.110494815 0.11320363 -0.021865115 -0.03880892 -0.2570342 -0.010391279 0.26734498 0.1552908 0.09115944 -0.055200547 -0.32402986 0.027452257 -0.04917744 0.10551497 0.081370585 -0.055922084 -0.07226921 -0.064446084 -0.095728196 0.01733948 -0.0319781 0.031620316 -0.025838671 -0.15533441 0.12696618 -0.1285787 0.13628562 0.00086698367 -0.047153257 0.09969883 0.2302159 0.06542642 -0.1766133 0.108288154 0.0027099936 -0.047261816 -0.037785545 -0.022441251 0.039872758 0.24636263 0.0670988 -0.13652827 0.06236759 0.09571879 0.111787565 0.21312381 -0.031631805 -0.04290876 0.24225791 -0.017520703 0.250212 -0.042142186 0.16037834 -0.13907251 -0.04501975 -0.059886456 0.09880957 -0.12538657 0.023391675 -0.28378233 0.10067916 0.20105153 -0.043908786 -0.010387022
15 0.13487333 -0.018219287 0.028719902 -0.018993044 0.008976758 -0.14477912 -0.05815046 0.03871202 -0.024825547 -0.038425058 0.044640813 -0.043090682 -0.14832021 -0.060626164 -0.060373537 -0.12979472 -0.034682423 0.026219768 -0.11708253 0.03222948 0.019960685 0.06089552 -0.053590614 0.047405127 0.011391013 -0.08521395 -0.20310707 0.0056415405 0.07809239 -0.0070904726 -0.026786014 -0.009543368 -0.090882145 -0.14229526 0.0041801194 0.09641688 -0.09759592 -0.06977543 0.009906657 0.08052881 0.1424395 0.015637413 0.013677631 0.07868377 -0.049776968 0.073133685 0.2870117 0.08425581 0.013202041 -0.0813267 0.08023934 0.055925902 -0.0505333 -0.17473839 0.20887741 0.04713952 0.007839906 0.20316976 -0.10266241 -0.047186486 -0.026710788 0.1842746 0.054777686 -0.111329935 -0.065222494 0.15244412 -0.04798427 0.0023399557 -0.23285122 -0.0040803044 0.15236664 0.14749521 0.13318375 -0.047706723 -0.14556068 -0.041363876 -0.042835794 0.16955687 0.12239831 0.0033922796 -0.011494665 -0.006525895 -0.0055388263 -0.12364425 -0.061357547 0.02258365 0.019425675 -0.13931675 0.01837192 -0.08641236 0.086002804 0.02575024 -0.025185531 0.15557136 0.141033 0.08871417 -0.18550874 0.08748517 -0.04390582 -0.06633441 -0.024162142 -0.04576948 -0.033799924 0.27997375 0.17532165 -0.1313895 0.10702201 0.115210816 0.080272704 0.03487133 -0.08979408 -0.085860305 0.25936463 -0.10012578 0.2159286 -0.039194595 0.112214535 -0.16133285 0.032834075 0.058866795 0.039938938 -0.085772134 0.0647461 -0.19110377 0.056589056 0.2049747 0.015832523 -0.07769484
21 0.1333791 -0.014631845 0.01953321 -0.02369395 0.008412181 -0.14444329 -0.05852244 0.043991752 -0.018643199 -0.034370042 0.045390088 -0.047815133 -0.15555766 -0.061589222 -0.05314369 -0.12558988 -0.038274307 0.029066324 -0.1198771 0.03499563 0.01823014 0.063465044 -0.055499636 0.04555421 0.006411411 -0.092708975 -0.20302936 0.004563893 0.085877486 -0.006554511 -0.023693357 -0.009545801 -0.09078353 -0.14459881 0.0019408243 0.09405821 -0.10465186 -0.06377118 0.0093767075 0.088351436 0.14618437 0.013382371 0.008551916 0.07355371 -0.053408593 0.06467688 0.28959805 0.0906494 0.016698059 -0.088456444 0.08549763 0.06368851 -0.05186727 -0.17403138 0.21521245 0.05423512 0.011868128 0.20581895 -0.09392515 -0.053035017 -0.021157917 0.18625942 0.056673247 -0.10237117 -0.061262622 0.15425661 -0.049955454 0.002468997 -0.23264264 -0.0039448775 0.14730607 0.14925785 0.13518393 -0.043891743 -0.13635688 -0.0386602 -0.04114556 0.16857368 0.12855144 0.005332007 -0.005491649 -0.004777989 0.0011001204 -0.13317208 -0.06641187 0.018828304 0.017038066 -0.14488696 0.014188878 -0.088514015 0.08842475 0.0284935 -0.023688307 0.16238385 0.13309458 0.08616614 -0.18376392 0.08331276 -0.047096636 -0.06786154 -0.021609293 -0.0457926 -0.039749578 0.28522384 0.1800517 -0.13336147 0.10688728 0.12116855 0.08475853 0.028059041 -0.09375892 -0.08614342 0.26594704 -0.10667895 0.22283354 -0.035745084 0.11036369 -0.16451779 0.036941115 0.06471893 0.039343793 -0.077392995 0.06863775 -0.19007699 0.05220498 0.20325497 0.023406813 -0.07639047
16 0.13177577 0.0004031973 -0.0028673555 -0.021553274 0.01381507 -0.13151306 -0.049389303 0.04704917 0.00016672004 -0.026585616 0.05249912 -0.053010654 -0.1597648 -0.05503585 -0.015252504 -0.10781912 -0.0333165 0.030977486 -0.13425449 0.043716196 0.00885663 0.06674587 -0.053634346 0.054365218 0.009555088 -0.098547146 -0.20635459 0.024900876 0.092396155 0.0018094605 -0.0012274582 -0.0068884483 -0.11214561 -0.12209504 -0.013591228 0.08213526 -0.13321775 -0.05175627 -0.000816908 0.0822196 0.13145892 0.0080092875 -0.0136890635 0.06461947 -0.060542542 0.05511668 0.27810684 0.11117919 0.020062754 -0.1030046 0.08343573 0.05892334 -0.069513306 -0.18668851 0.23406751 0.088434264 0.026638685 0.20620307 -0.08257536 -0.052519605 -0.0036582106 0.18553391 0.0693821 -0.08619236 -0.053307332 0.16391677 -0.059992243 0.011339275 -0.22085343 -0.0053990358 0.11557495 0.14523238 0.14258775 -0.042386882 -0.093152806 -0.06020769 -0.03951379 0.18071318 0.13779189 0.025647303 0.012520512 0.008569648 0.022593532 -0.17030628 -0.06596205 0.019497072 0.029390981 -0.13165933 -0.016821926 -0.07624942 0.06724747 0.036155045 -0.015634917 0.16441546 0.10851628 0.09328796 -0.18003093 0.07134573 -0.057061806 -0.07239977 -0.017045919 -0.05231119 -0.051327597 0.2917234 0.20526981 -0.12634999 0.116570756 0.12500478 0.071910754 -0.01847583 -0.10049996 -0.09448935 0.25848767 -0.12258257 0.20318906 -0.032019507 0.09123818 -0.15810552 0.05332987 0.0918917 0.025882065 -0.068244435 0.080970675 -0.16317083 0.034675356 0.20175 0.0360388 -0.09670258
12 0.13096237 -0.03478363 0.08643244 -0.025850162 0.010511199 -0.17340626 -0.06856495 0.017152356 -0.050310098 -0.052794497 0.041385453 -0.03898988 -0.14176124 -0.07406249 -0.13359049 -0.16043583 -0.038244102 0.018405555 -0.08736502 0.018729433 0.037350774 0.051648427 -0.06061113 0.031126225 0.008441327 -0.07103307 -0.19747676 -0.038101967 0.065604724 -0.025805946 -0.07861615 -0.0178893 -0.0498845 -0.18079752 0.04293858 0.12950693 -0.034944203 -0.09804007 0.023305222 0.085300475 0.159936 0.026940247 0.058217894 0.08846626 -0.034981254 0.10263267 0.29996318 0.032270227 0.011170025 -0.049728137 0.08667142 0.06985337 -0.020965569 -0.15183192 0.16029997 -0.014654576 -0.028105464 0.19808292 -0.13231538 -0.042058114 -0.05024147 0.18360627 0.0394855 -0.1460209 -0.0881125 0.14373092 -0.033660162 -0.022587173 -0.25296655 -0.010579112 0.21719126 0.15499412 0.11234523 -0.050534204 -0.24684775 -0.010295162 -0.046421435 0.14200388 0.10429839 -0.023237118 -0.042655643 -0.039503988 -0.048165202 -0.05748832 -0.046042856 0.023083052 -0.005123079 -0.15571798 0.07685857 -0.11414894 0.11712094 0.014853427 -0.03504483 0.1299487 0.19442599 0.080744684 -0.18291613 0.10400524 -0.024134764 -0.06071514 -0.03558002 -0.038177516 -0.00037363128 0.27081168 0.12376308 -0.1361718 0.085711315 0.11237727 0.100141965 0.13111915 -0.06647947 -0.06602029 0.26303944 -0.06216565 0.24331671 -0.043299753 0.1353309 -0.1600733 -0.0061582522 -0.00047699024 0.0684313 -0.10561883 0.045201726 -0.24542367 0.08081676 0.20694244 -0.01706487 -0.041953947
